{
  "animalBrain": {
    "serializableWeightsData": {
      "inputSynapsesWeights": [
        [
          -0.0187612772,
          0.08889687,
          -0.243831515,
          0.799319,
          -0.6275382,
          -0.74565053,
          0.823578835,
          -0.618265152,
          0.9116137,
          0.6827061,
          0.309608668,
          0.5095625,
          -0.326307416,
          0.772381067,
          -0.01674807,
          0.518220663,
          -0.308143735
        ],
        [
          -0.6108482,
          -0.797415257,
          0.6910274,
          0.4408252,
          0.1727382,
          -0.70340085,
          -0.9426887,
          0.027291894,
          0.4708719,
          -0.721323252,
          0.91888,
          0.0148421526,
          0.306395262,
          0.223151565,
          -0.892190933,
          0.150467038,
          -0.6888697
        ],
        [
          0.409680337,
          -0.497171044,
          0.927172661,
          -0.127173066,
          -0.234815717,
          0.246141791,
          0.3609664,
          -0.9261937,
          0.251739234,
          0.738903761,
          -0.7832985,
          -0.0107761621,
          0.8131342,
          -0.0247186422,
          0.0820456743,
          0.7465949,
          -0.9231458
        ],
        [
          -0.7378969,
          -0.6724615,
          -0.7800915,
          0.129527926,
          -0.06540787,
          -0.9811189,
          -0.6190531,
          0.872892141,
          0.843138933,
          -0.25500834,
          -0.8794544,
          -0.316289544,
          0.6738212,
          -0.712368965,
          0.747895241,
          0.413889378,
          0.0532933474
        ],
        [
          0.7071066,
          0.423303336,
          -0.5725815,
          0.04102671,
          0.036221385,
          -0.451763749,
          0.399967164,
          -0.365456223,
          -0.2482897,
          0.928339,
          0.2983708,
          -0.5830066,
          0.4503748,
          0.9943454,
          -0.9188111,
          -0.05883944,
          0.768401146
        ],
        [
          0.8105414,
          0.1582433,
          -0.296496272,
          0.691390038,
          -0.4659065,
          0.7272563,
          -0.7776058,
          -0.300285459,
          0.923070431,
          -0.362849355,
          0.579614639,
          -0.198683858,
          0.2753403,
          -0.0413175821,
          -0.627336,
          0.607993364,
          0.401089877
        ],
        [
          0.213594079,
          0.305992335,
          -0.720836163,
          0.965842962,
          -0.135666966,
          -0.7384722,
          -0.8658664,
          -0.9561889,
          0.100816846,
          -0.331562877,
          -0.198606849,
          0.06257999,
          0.382567376,
          0.816539049,
          0.442747563,
          0.8811655,
          -0.206309438
        ],
        [
          -0.447751164,
          -0.446795821,
          0.188124537,
          -0.933502436,
          0.299214333,
          0.255717248,
          -0.6550677,
          0.416991442,
          0.8731723,
          -0.9872298,
          -0.254617333,
          -0.76023674,
          0.174059272,
          -0.7152376,
          -0.6288576,
          0.250792,
          -0.7552247
        ],
        [
          -0.055175662,
          -0.166176677,
          0.09995186,
          0.24797523,
          0.347684354,
          0.518858433,
          0.2930059,
          -0.942424059,
          -0.639673,
          0.0576766729,
          0.0230306387,
          -0.755211353,
          -0.1388191,
          -0.629873753,
          -0.0796452761,
          -0.8994324,
          -0.302971
        ],
        [
          0.62351346,
          -0.646602869,
          0.6039989,
          -0.8946371,
          -0.8723831,
          0.5493965,
          0.6644082,
          -0.4077431,
          0.5242808,
          -0.8988559,
          -0.7125001,
          -0.619200468,
          -0.0575608,
          -0.346261859,
          -0.473451018,
          -0.33278,
          0.7677741
        ],
        [
          0.166663766,
          -0.7518985,
          0.702192545,
          -0.207302451,
          -0.8768208,
          0.4254155,
          -0.875914335,
          0.372095078,
          0.9755316,
          0.8868487,
          -0.350504756,
          -0.5515306,
          -0.8593557,
          0.1833204,
          -0.6369176,
          -0.4708954,
          -0.441203237
        ],
        [
          0.460709542,
          0.762928,
          0.3345823,
          -0.0475424528,
          -0.786077738,
          -0.06380713,
          0.419216126,
          -0.5040078,
          0.00276887417,
          -0.7483356,
          -0.409991384,
          0.9709685,
          0.185102582,
          -0.489177585,
          0.30169937,
          -0.414342046,
          -0.227273822
        ],
        [
          -0.0650516748,
          0.7965982,
          0.7866459,
          -0.0206362,
          -0.0785917044,
          0.540678,
          0.746417046,
          -0.9125631,
          0.6683438,
          0.982016563,
          0.1343435,
          -0.698339,
          -0.00157988071,
          0.9038105,
          0.171645045,
          0.4531941,
          -0.138809562
        ],
        [
          0.52703166,
          0.4685702,
          0.81242156,
          0.63784194,
          -0.416746974,
          0.7794113,
          0.792011,
          0.4794931,
          -0.5731013,
          0.502910137,
          -0.826868057,
          0.9059386,
          -0.197950244,
          -0.209288716,
          0.05315745,
          -0.8735528,
          0.72801137
        ],
        [
          -0.04682362,
          0.304786652,
          0.07546985,
          0.317904919,
          0.316551179,
          -0.3294438,
          0.4714255,
          0.516839266,
          -0.197114348,
          -0.830187559,
          0.988927364,
          -0.467893,
          -0.3983189,
          0.8215947,
          -0.261661649,
          0.0760597,
          0.319061
        ],
        [
          -0.00309216976,
          -0.9836359,
          0.553880453,
          -0.9114766,
          -0.9133868,
          -0.2174555,
          0.8464167,
          -0.8871124,
          -0.3600837,
          -0.3149811,
          -0.862190247,
          0.5837772,
          0.07376063,
          0.970705032,
          0.03841746,
          -0.211160779,
          0.518150568
        ],
        [
          -0.4369203,
          0.704741,
          -0.444332719,
          -0.09983361,
          -0.241112351,
          0.7491894,
          -0.144842029,
          0.9292791,
          0.9952743,
          -0.389936566,
          0.3220918,
          -0.754254341,
          -0.7440429,
          0.979681969,
          0.4793112,
          -0.285666823,
          -0.6639149
        ],
        [
          0.9692223,
          -0.297665477,
          -0.903713465,
          0.480787,
          -0.297309518,
          0.192435384,
          -0.870228767,
          -0.9174478,
          -0.183094144,
          0.831219435,
          -0.352285028,
          0.4951484,
          0.241592765,
          0.167678714,
          0.5017674,
          -0.611309767,
          -0.415983558
        ],
        [
          0.695343256,
          -0.774478436,
          0.986576557,
          0.349059552,
          0.923847437,
          -0.2792157,
          0.761805534,
          -0.6476133,
          0.0990725756,
          0.249301553,
          0.7356994,
          0.9366486,
          0.09275615,
          -0.75696516,
          -0.2448951,
          0.7459061,
          0.286332816
        ],
        [
          0.553027868,
          -0.801282167,
          0.681334734,
          -0.480128646,
          -0.0217410326,
          0.332168549,
          0.938187838,
          0.12294662,
          -0.165596843,
          0.5625975,
          -0.8657503,
          -0.5122702,
          -0.09925234,
          0.6649325,
          0.1841129,
          0.6470926,
          0.578436136
        ],
        [
          -0.5448718,
          -0.372455239,
          0.9336319,
          -0.8629203,
          -0.5322423,
          0.8776424,
          -0.634032,
          -0.0109521151,
          0.8623197,
          0.303655356,
          0.138338685,
          -0.2315408,
          -0.7729759,
          0.139007449,
          -0.8685987,
          0.92851615,
          0.1933254
        ],
        [
          0.0258384943,
          -0.2557608,
          -0.6874745,
          0.127182126,
          0.325866669,
          -0.0443328619,
          -0.0005937815,
          0.0469871759,
          0.6664517,
          -0.166202188,
          -0.6791432,
          -0.117765069,
          0.714606047,
          0.650682,
          0.221913457,
          -0.248303056,
          0.6170833
        ]
      ],
      "outputSynapsesWeights": [
        [
          0.143624187,
          -0.5025327,
          -0.837304831,
          0.4963989,
          -0.6464174,
          -0.877349138,
          0.8459618,
          0.365998954,
          0.282999963,
          -0.2019757,
          0.8437686,
          -0.9230542,
          0.04030001,
          -0.1793176,
          -0.358063817,
          0.8736677,
          0.6676829,
          0.76242733
        ],
        [
          -0.8865645,
          -0.355095267,
          -0.5604675,
          -0.2272855,
          0.734923363,
          0.26927802,
          -0.0324286222,
          0.236815333,
          -0.06514013,
          -0.020968318,
          0.7595885,
          0.531339169,
          0.5891621,
          -0.4952613,
          0.617429256,
          -0.3776964,
          0.6407323,
          -0.0226255655
        ],
        [
          -0.852924347,
          0.9081867,
          0.3958492,
          -0.553284168,
          0.120938182,
          0.803720951,
          -0.45440042,
          -0.568282843,
          0.549656868,
          0.2651696,
          0.05753076,
          0.5486114,
          0.213531375,
          -0.3902415,
          -0.544919968,
          -0.4349016,
          0.366698474,
          -0.9272425
        ],
        [
          0.667595863,
          -0.09484494,
          0.5998354,
          0.08243024,
          0.8799908,
          0.556535244,
          0.414327353,
          0.405871838,
          -0.2820958,
          -0.214243531,
          0.2280556,
          -0.187289119,
          0.117031932,
          -0.8754101,
          0.325348347,
          -0.5491307,
          -0.944631338,
          0.0839918852
        ],
        [
          -0.521199465,
          -0.10812223,
          -0.9670229,
          -0.2753855,
          0.330219477,
          -0.89703393,
          -0.365354419,
          -0.5328467,
          0.4227452,
          -0.111351848,
          -0.7989898,
          0.5582483,
          -0.490777373,
          0.0451647043,
          0.218941331,
          -0.2080878,
          -0.6797762,
          0.0317918062
        ],
        [
          -0.220075965,
          -0.0205487013,
          0.156620383,
          0.9536364,
          0.5722821,
          0.834347963,
          -0.381518722,
          -0.0594421625,
          0.13777101,
          0.435162276,
          -0.448484063,
          -0.983720541,
          0.927931547,
          -0.880239248,
          -0.5562432,
          -0.797833443,
          0.0338104963,
          -0.17965138
        ],
        [
          0.008788228,
          -0.251932263,
          -0.362336278,
          -0.8129709,
          0.979098558,
          0.972933769,
          0.727375031,
          -0.2127999,
          0.8377249,
          0.7618463,
          0.7207961,
          -0.015132308,
          -0.9634421,
          -0.167197108,
          0.706415653,
          0.145014167,
          0.7432935,
          0.0577574968
        ],
        [
          0.05009973,
          0.619050741,
          0.279308528,
          0.925499439,
          -0.5184784,
          -0.5313082,
          0.746961832,
          0.207538724,
          0.813034058,
          -0.165835023,
          -0.0484308,
          -0.207539916,
          0.592801332,
          -0.7811241,
          -0.679748058,
          0.9144542,
          -0.4737991,
          -0.6848471
        ],
        [
          -0.342705846,
          0.8177457,
          0.254615039,
          0.5924175,
          -0.585509539,
          -0.210179448,
          -0.21530211,
          0.4709656,
          -0.9599314,
          -0.530051231,
          -0.3253256,
          -0.326994061,
          0.2174896,
          -0.9873085,
          0.605594635,
          -0.878042,
          -0.5239248,
          0.129592776
        ],
        [
          0.877785444,
          -0.2111429,
          0.1588372,
          0.270150155,
          0.6552243,
          -0.033400178,
          -0.3359517,
          -0.8093169,
          0.2948093,
          0.5852995,
          0.726016045,
          -0.8698211,
          0.40005824,
          -0.187746167,
          0.0246244669,
          -0.230708241,
          -0.5177276,
          -0.4936148
        ],
        [
          -0.9476228,
          0.46092698,
          -0.1541704,
          -0.08913529,
          0.734312057,
          -0.645067,
          -0.54461,
          -0.987110138,
          0.0234848261,
          -0.261238217,
          -0.333472133,
          -0.6330936,
          -0.4061302,
          0.8542876,
          0.0199166536,
          -0.596086264,
          0.4025714,
          0.621824265
        ],
        [
          0.929071665,
          0.7006316,
          -0.162405133,
          -0.07559717,
          0.0360506773,
          -0.07081163,
          -0.653418064,
          0.244712949,
          -0.126731992,
          -0.6247914,
          0.9521198,
          -0.5572572,
          0.47548458,
          0.5263965,
          0.9291196,
          -0.200990081,
          -0.5567734,
          -0.0106130838
        ],
        [
          -0.361970782,
          -0.759791136,
          -0.5142338,
          -0.184723735,
          -0.528697968,
          0.8228929,
          -0.964288235,
          -0.330777049,
          0.823984146,
          -0.72552824,
          0.7555554,
          0.6081672,
          -0.641381,
          -0.750501156,
          -0.7944405,
          -0.790858269,
          0.592156649,
          0.7730224
        ],
        [
          0.5918901,
          -0.4755274,
          -0.5932944,
          -0.996583939,
          -0.5847912,
          0.447205037,
          0.2352804,
          0.412083834,
          0.408055037,
          -0.4587649,
          0.6442244,
          -0.0324836969,
          0.8636987,
          -0.3045262,
          0.394746035,
          -0.412127852,
          0.283642262,
          0.6038387
        ],
        [
          -0.863739252,
          -0.778675556,
          0.7509022,
          -0.8737767,
          0.290035933,
          -0.9057362,
          -0.231743455,
          -0.5022595,
          0.7810905,
          0.389969081,
          0.332947463,
          -0.874392033,
          -0.158153653,
          0.06916702,
          0.547201633,
          0.271510571,
          0.4979839,
          0.0129445791
        ],
        [
          -0.173830867,
          -0.263279319,
          0.9409981,
          -0.5760579,
          -0.6089399,
          0.5277324,
          -0.3648318,
          -0.126303315,
          0.09161246,
          0.6046579,
          -0.0260344744,
          0.6318753,
          -0.04215038,
          0.28326723,
          0.3891563,
          -0.253439069,
          -0.0467413664,
          0.07220781
        ],
        [
          -0.210724235,
          0.388479918,
          -0.453852773,
          -0.324573159,
          0.8195379,
          -0.205314279,
          0.8076744,
          -0.821123838,
          0.6731832,
          0.9302869,
          -0.935127735,
          0.3428323,
          0.365127772,
          0.615813732,
          -0.396595359,
          0.102640986,
          -0.899304867,
          0.176510215
        ],
        [
          -0.0442482233,
          0.1022228,
          0.072089076,
          0.272145,
          0.155042052,
          -0.9080944,
          0.961678,
          -0.165092111,
          0.6731305,
          -0.3413118,
          0.68353796,
          0.790018559,
          0.7166705,
          0.679013,
          -0.0872892141,
          0.682668,
          -0.5450959,
          -0.9501333
        ],
        [
          0.08195984,
          -0.5582192,
          -0.326990247,
          -0.145580173,
          -0.5616238,
          -0.6335597,
          -0.8214812,
          0.2507598,
          0.651963,
          0.16142118,
          0.219196677,
          0.3158612,
          0.0100039244,
          -0.345936418,
          -0.7463491,
          0.156126618,
          -0.183915973,
          -0.6981659
        ],
        [
          0.0629228354,
          0.715558052,
          0.791158438,
          0.980191,
          0.956984043,
          0.333683461,
          0.74497056,
          -0.23069489,
          -0.463904262,
          0.54807806,
          -0.477124333,
          -0.0506421328,
          -0.382920146,
          0.4556279,
          -0.5535679,
          0.122959495,
          0.9219353,
          0.2919514
        ],
        [
          0.822730541,
          -0.124640107,
          -0.765032053,
          -0.2752782,
          0.702882767,
          -0.6271007,
          -0.324690223,
          0.6372249,
          -0.6090157,
          -0.3436414,
          -0.703896761,
          -0.6674509,
          0.960924149,
          0.374371022,
          0.121131063,
          -0.606745,
          -0.782481432,
          -0.0784469843
        ],
        [
          -0.9265919,
          -0.234632373,
          -0.0956517458,
          -0.3309356,
          -0.7553303,
          -0.6883626,
          0.7746594,
          -0.6415236,
          -0.9798181,
          0.270290822,
          -0.9417467,
          0.5857024,
          -0.3248278,
          0.232388139,
          0.465880126,
          0.3445911,
          -0.3356701,
          -0.9844899
        ]
      ],
      "hiddenLayerSynapsesWeights": [
        [
          0.6492779,
          -0.554453135,
          0.633322,
          0.2138468,
          -0.7170036,
          -0.199759364,
          0.480653256,
          -0.8504267,
          -0.04670632,
          0.485691279,
          0.401306838,
          0.40329,
          -0.844568968,
          0.8920419,
          -0.271830678,
          0.5535314,
          0.698904753,
          -0.08794749,
          -0.5907135,
          0.167775989,
          0.124761939,
          -0.6885185
        ],
        [
          -0.04140389,
          0.3151519,
          -0.611822367,
          0.0303601027,
          0.395879477,
          -0.414469838,
          -0.0436571836,
          -0.800447,
          -0.189946055,
          -0.6113894,
          -0.0987798,
          0.306150645,
          -0.05193746,
          -0.30608952,
          -0.183855176,
          -0.8498819,
          -0.6481943,
          0.00283801556,
          -0.6741476,
          0.0130413771,
          0.9251852,
          0.9656284
        ],
        [
          -0.9403534,
          -0.623287439,
          0.7017443,
          0.694592953,
          -0.996231556,
          -0.364478469,
          0.5686822,
          -0.9541943,
          0.0518645048,
          -0.239483237,
          0.176886439,
          -0.7412815,
          0.34320733,
          -0.313097835,
          -0.144678235,
          0.5317309,
          -0.542877436,
          0.141355872,
          0.7790084,
          0.39958474,
          0.284229726,
          -0.157495856
        ],
        [
          0.15557754,
          0.5969424,
          -0.5200243,
          0.09304416,
          -0.535433054,
          0.9096954,
          -0.5262983,
          0.8942888,
          0.1630007,
          -0.6021657,
          -0.9582248,
          -0.294128537,
          0.15915525,
          0.134303927,
          0.26222226,
          -0.354238153,
          0.211980224,
          -0.337611079,
          0.699587345,
          0.193074822,
          0.338563174,
          0.3265824
        ],
        [
          -0.698910236,
          0.908540249,
          -0.04932797,
          -0.386583447,
          -0.769050837,
          -0.2642933,
          0.183579326,
          0.4048235,
          -0.6889391,
          -0.7282512,
          0.5697148,
          -0.7728026,
          -0.9557903,
          0.9095831,
          -0.802657843,
          0.309498519,
          0.24236834,
          -0.231136918,
          -0.7405119,
          0.6868663,
          -0.194220662,
          0.7477424
        ],
        [
          -0.08789933,
          0.293725938,
          0.5528319,
          0.921817064,
          0.120077252,
          -0.281802058,
          -0.363304257,
          -0.411617637,
          -0.9315276,
          -0.82488656,
          -0.8332479,
          0.453224629,
          0.8621156,
          -0.565392256,
          0.618499041,
          -0.2691766,
          0.3488216,
          -0.852318048,
          0.7698786,
          -0.642487764,
          -0.6903186,
          0.8254328
        ],
        [
          -0.936594248,
          -0.758513,
          -0.3677987,
          -0.0565565825,
          -0.200523019,
          0.0598989725,
          0.9978306,
          -0.6470649,
          -0.3473369,
          0.06862986,
          -0.8979356,
          0.6448169,
          -0.9868581,
          0.5971596,
          0.6515806,
          0.396069974,
          -0.09121907,
          -0.785637856,
          -0.4368459,
          -0.680450439,
          -0.880885363,
          0.931301355
        ],
        [
          -0.7085078,
          -0.388006568,
          0.8272245,
          -0.427500844,
          0.154125333,
          -0.3651079,
          0.0367316,
          0.794752359,
          0.7922394,
          0.760648251,
          -0.89815855,
          0.650078058,
          0.68914485,
          -0.7185223,
          -0.8960781,
          -0.959498167,
          0.8772533,
          -0.07063997,
          0.370867938,
          -0.2945758,
          -0.4678365,
          0.1641227
        ],
        [
          -0.9286375,
          -0.5165758,
          0.74183774,
          0.1455847,
          -0.259629846,
          0.60826683,
          -0.31235826,
          -0.5298989,
          -0.8274565,
          -0.2376517,
          -0.532359838,
          0.00425922871,
          0.714170933,
          -0.693990469,
          -0.9056492,
          -0.728271,
          -0.05007112,
          -0.8644357,
          -0.9897115,
          -0.1883887,
          0.4106314,
          -0.566952
        ],
        [
          -0.5126307,
          0.7554276,
          0.5168643,
          0.02976501,
          -0.7857356,
          -0.42692554,
          -0.7418437,
          0.380829781,
          0.700137138,
          0.9005692,
          0.149392009,
          -0.7113817,
          0.263672084,
          -0.6124375,
          -0.891860247,
          0.4304652,
          0.0574573278,
          -0.584547043,
          -0.146469951,
          -0.539450645,
          -0.345366359,
          0.9930403
        ],
        [
          0.38896057,
          -0.7479062,
          -0.477225661,
          -0.224558473,
          0.272597045,
          -0.6839001,
          -0.433133721,
          -0.915075541,
          0.133306623,
          0.675621033,
          -0.365077138,
          -0.710414648,
          -0.05741012,
          0.5942724,
          0.102187276,
          -0.596972942,
          0.6187444,
          -0.6660814,
          0.166271091,
          -0.223523974,
          -0.84361434,
          -0.0260587931
        ],
        [
          0.9438255,
          0.6986015,
          0.281265,
          0.634694338,
          -0.3651172,
          0.387599677,
          -0.977414131,
          0.324951619,
          -0.123680472,
          0.6346891,
          0.07984412,
          -0.313785434,
          0.126394629,
          0.468179673,
          -0.4748274,
          -0.373824,
          0.175068259,
          -0.607996464,
          0.416258782,
          0.259845942,
          -0.9081764,
          -0.009275556
        ],
        [
          0.412775,
          0.488070935,
          -0.261901736,
          -0.305345178,
          0.4318883,
          -0.307980657,
          -0.5356169,
          0.242577672,
          -0.379531741,
          -0.06604898,
          0.945413351,
          0.4977028,
          0.4363341,
          0.0063072443,
          -0.5596967,
          0.89975667,
          -0.969744444,
          0.707558632,
          0.124899507,
          -0.776501656,
          0.6547148,
          -0.349753976
        ],
        [
          0.172570825,
          -0.9564769,
          0.805323839,
          -0.810090542,
          -0.34283793,
          -0.857324839,
          0.264783829,
          0.261026353,
          -0.0313001871,
          0.8812151,
          0.22463,
          0.8999872,
          -0.416835427,
          -0.8845835,
          0.881572247,
          -0.9318869,
          -0.9192631,
          0.00224745274,
          0.9309473,
          -0.730850458,
          0.125679851,
          0.3952131
        ],
        [
          -0.8317418,
          -0.0384145975,
          -0.120301127,
          -0.0108782053,
          -0.4331056,
          -0.392871022,
          -0.7235031,
          0.859483242,
          -0.137440562,
          0.696445,
          -0.566508055,
          -0.625119,
          -0.27035892,
          -0.9895046,
          0.777683735,
          -0.598254442,
          0.230145812,
          0.467334241,
          0.4921336,
          0.577513933,
          -0.0242422819,
          -0.203171372
        ],
        [
          0.1556021,
          -0.70950985,
          -0.4101745,
          0.710043669,
          0.921709061,
          -0.17244041,
          -0.350526452,
          -0.104041934,
          -0.6388278,
          -0.0154691935,
          -0.6420107,
          0.542114,
          -0.4324125,
          0.4379079,
          -0.564634562,
          -0.0939492,
          0.0823682547,
          0.989681959,
          0.9105742,
          -0.7725601,
          0.63327384,
          -0.303390384
        ],
        [
          -0.970104456,
          0.5852039,
          -0.487813354,
          0.773718834,
          -0.191010356,
          0.234505773,
          -0.178354383,
          0.125797629,
          0.971643,
          0.8477545,
          -0.985452652,
          -0.979584932,
          -0.455223441,
          0.683342,
          0.803986549,
          0.119020343,
          0.835639,
          0.07157481,
          -0.074768424,
          0.08178699,
          0.15922749,
          -0.9587221
        ],
        [
          0.749145746,
          0.157394052,
          -0.134774327,
          -0.6435206,
          -0.04117,
          0.272134036,
          0.127442718,
          -0.3122033,
          -0.9321835,
          -0.3038324,
          -0.7175052,
          0.9052069,
          -0.6207342,
          0.805926561,
          -0.132031322,
          0.791499138,
          0.475060433,
          0.9650707,
          -0.822162867,
          -0.940892,
          0.4815118,
          0.6454294
        ],
        [
          -0.246660352,
          -0.996440649,
          -0.07489288,
          -0.305525422,
          0.279666632,
          0.712314844,
          -0.538857937,
          0.936977863,
          0.3532605,
          0.224054933,
          0.570827,
          0.5415213,
          -0.817111731,
          -0.683575869,
          -0.2724105,
          0.5749974,
          -0.7528403,
          0.0516744852,
          0.912397146,
          0.268210381,
          0.6227133,
          0.463497132
        ],
        [
          -0.0635215044,
          0.00063431263,
          0.884737,
          0.5806706,
          -0.0531741381,
          -0.497725129,
          -0.326948524,
          0.3236527,
          -0.303554654,
          0.227273345,
          0.0162769556,
          -0.186415076,
          0.427098,
          0.624594,
          -0.5225432,
          0.8370259,
          0.9802959,
          0.580590248,
          -0.5242593,
          0.9490683,
          0.372163743,
          -0.3853432
        ],
        [
          -0.2955271,
          0.121159434,
          -0.767495155,
          -0.769565344,
          -0.6316767,
          -0.474970937,
          -0.7559364,
          -0.0424581766,
          -0.176394582,
          -0.8928292,
          0.5831528,
          0.289789647,
          0.0655809641,
          0.0111516714,
          0.748909,
          0.191310763,
          -0.7958734,
          -0.6346121,
          0.09272587,
          -0.8811574,
          0.676729441,
          -0.148394465
        ],
        [
          -0.5278733,
          -0.193266511,
          -0.30871737,
          -0.9018147,
          0.160358548,
          0.568867445,
          0.442471951,
          0.704254866,
          0.118105769,
          0.9268186,
          -0.8058791,
          -0.2957772,
          0.5686157,
          -0.7151053,
          0.7340634,
          -0.809996843,
          -0.186514974,
          -0.01883924,
          -0.13039577,
          -0.659463167,
          0.913289547,
          0.374149531
        ]
      ],
      "hiddenLayerBias": [
        -0.678816557,
        0.224541783,
        -0.7433443,
        0.181846976,
        0.5802126,
        0.174642444,
        -0.253357053,
        -0.283207536,
        0.0148550272,
        0.9732883,
        -0.3755082,
        -0.173591971,
        0.7787571,
        0.883321762,
        -0.202783465,
        0.146237969,
        -0.2068795,
        0.7965441,
        -0.3310827,
        0.346222371,
        -0.219869256,
        -0.787688732
      ],
      "secondHiddenLayerBias": [
        -0.04731095,
        0.8200288,
        0.797924042,
        0.596469641,
        -0.205797791,
        0.6003518,
        0.7420807,
        -0.474213481,
        0.74239254,
        0.99405,
        0.304600447,
        -0.848574162,
        0.13553226,
        -0.2846836,
        -0.0144673586,
        -0.724925756,
        -0.7007668,
        -0.286573768,
        -0.262117982,
        0.7945342,
        -0.210396409,
        -0.07476008
      ]
    }
  },
  "partsMass": {
    "0": 8.877368,
    "1": 9.965192,
    "2": 6.806992,
    "3": 8.557794,
    "4": 4.872112,
    "5": 5.370152,
    "6": 2.84535313,
    "7": 9.165153,
    "8": 2.20939827,
    "9": 6.57863569,
    "10": 7.78762
  },
  "partsScaleMultiplier": {
    "0": {
      "X": 1.23957217,
      "Y": 1.0,
      "Z": 1.24000454
    },
    "1": {
      "X": 0.6218399,
      "Y": 1.0,
      "Z": 0.6839657
    },
    "2": {
      "X": 0.696344,
      "Y": 1.0,
      "Z": 1.22219753
    },
    "3": {
      "X": 1.25519037,
      "Y": 1.0,
      "Z": 1.00310385
    },
    "4": {
      "X": 1.0136739,
      "Y": 1.0,
      "Z": 0.999573469
    },
    "5": {
      "X": 1.20144594,
      "Y": 1.0,
      "Z": 0.7420168
    },
    "6": {
      "X": 0.6926625,
      "Y": 1.0,
      "Z": 1.22316074
    },
    "7": {
      "X": 1.11765254,
      "Y": 1.0,
      "Z": 1.35933864
    },
    "8": {
      "X": 0.810079,
      "Y": 1.0,
      "Z": 1.32770431
    },
    "9": {
      "X": 0.6825936,
      "Y": 1.0,
      "Z": 1.37043869
    },
    "10": {
      "X": 1.33000076,
      "Y": 1.0,
      "Z": 1.378245
    }
  },
  "limbsPositionMultiplier": {
    "0": {
      "X": 0.619835,
      "Y": 1.0,
      "Z": 1.09582591
    },
    "1": {
      "X": 1.11480021,
      "Y": 1.0,
      "Z": 0.99171257
    },
    "2": {
      "X": 1.35931337,
      "Y": 1.0,
      "Z": 0.6310252
    }
  },
  "targetJointsVelocity": {
    "0": 4043,
    "1": 4679,
    "2": 3858,
    "3": 2260,
    "4": 3313,
    "5": 4486,
    "6": 2677,
    "7": 3634,
    "8": 4531,
    "9": 4164,
    "10": 2512
  }
}